GIS
10
0.0
2
T
F
4
209
148 0
576 0 1
101 1
1034
n=cm
n=Phone
x=these
n=Clinically
x=extremity
x=V
x=grandchildren
v=bladder
x=1983
x=pectoris
n=Noncontributory.
v=PFH
v=night
x=trauma
x=DIAGNOSIS
n=minutes
n=Telephone
n=LDL
v=RX
s=5,
x=father
x=bid
x=Hypothyroidism
n=times
x=biopsy
v=non-Hodgkin's
v=1998.
n=microjoules.
x=infarction
n=Overall
x=transfers
v=PEG
x=Darvocet
v=called
x=adequate
v=GYN
x=improved
x=Penicillin
x=previously
v=major
x=Service
v=stable.
x=active
n=Miss
x=consultation
n=which
x=hyperglycemia
x=R
v=q.i
n=Advised
n=Treatment
n=Stable.
v=Marys
n=was
x=thereafter
x=palpitations
v=oral
x=non-Hodgkin
v=angina
x=Physician
v=ear
n=g
n=Again,
x=TSH
v=disease
v=Right
x=pneumonia
n=Family
x=constipation
n=solution
n=Over
n=supervising
x=before
x=vomiting
v=V
n=Symptoms
eos=]
x=diabetes
x=satisfactory
x=rhythm
x=refill
x=sweats
x=effective
n=Now
v=p.r.n.
x=appropriate
x=inhaler
v=now
x=fall
x=nose
n=Type
x=there
x=Mayo
n=Hopefully
n=who
v=sun
v=therapy
x=improve
n=Had
n=lymphoma.
s=9,
x=records
v=seborrheic
x=legs
x=Center
x=weight
n=/
n=when
n=Aspirin
x=Tylenol
v=another
n=Hospital
x=findings
v=x
n=#12
n=Uses
x=progress
v=Renal
n=normal
v=eating
x=anticoagulation
v=heavy
n=Followup
n=Today
v=biopsy
v=feel
v=cataract
v=multiple
n=Hvaifg
n=Note
n=Past
n=feel
x=A
18
n=(Dictated
v=March
v=Sep
x=stiffness
x=fever
n=RESPIRATORY:
n=320
x=microjoules
x=health
x=L
v=PLAN:
n=Encouraged
n=Yes
n=a
x=discussed
n=Bilateral
n=disease.
v=Hypertension.
n=4
v=getting
v=following
x=antibiotic
n=or
x=plan
x=worse
x=osteoporosis
n=Subsequent
x=obtained
x=man
x=.6
v=low
v=cuff
v=cancer
x=frequency
x=tonsillectomy
n=Pfdpjoo
x=melena
x=Dysphagia
x=additions
x=mother
x=protocol
x=complications
x=Osteopenia
x=General
x=weekly
n="
n=Should
x=snoring
v=rectal
n=cc
x=given
n=Finally,
v=Occasional
s=7,
v=relatively
v=#6
x=breath
x=intolerance
n=1)
x=excellent
v=--
x=apnea
n=CT
x=Recommendations
n=MUSCULOSKELETAL:
n=Alcohol
v=many
n=CONSTITUTIONAL:
x=x-ray
v=supervising
x=consultant
x=chemotherapy
v=CALL
n=history
n=2)
n=Vitamin
n=#7
x=side
x=catheterization
v=second
x=lesion
v=weeks
v=will
v=otherwise
v=15
x=levels
x=throat
n=Review
x=stroke
x=that
v=replacement
v=pain.
n=These
n=Recommend
x=Dermatology
v=None
n=Currently
v=disease.
x=maintenance
v=its
x=low
v=above.
n=#10
v=doing
x=bronchitis
x=procedure
x=ischemia
x=currently
v=somewhat
n=Repeat
v=time.
n=Weight
n=#6
n=Approximately
n=Apparently
x=extremities
v=it
x=scheduled
x=Hospital
x=management
x=tomorrow
x=future
v=cardiac
v=knee
x=injury
v=coronary
v=upper
x=relief
x=aspirin
v=#8
x=reflux
x=age
v=throat
v=nursing
n=NURSING
x=discomfort
v=4
x=asymptomatic
x=dysfunction
x=known
n=Currently,
x=antibiotics
v=currently
v=regular
x=gain
v=present
v=day.
x=hip
x=removed
v=information.
x=again
x=range
x=injection
x=Reassured
v=every
n=IMPRESSION
x=unremarkable
x=done
n=Return
x=benefit
x=activity
x=help
x=cough
n=To
v=cardiovascular
v=ulcer
x=minute
x=preoperatively
n=Prescription
n=Because
x=region
v=sinus
n=All
x=him
v=new
x=change
n=#9
v=breast
x=dementia
v=pulmonary
n=None
x=DIAGNOSES
n=Does
n=#8
n=By
x=needed
v=done
v=Negative.
v=under
x=headache
x=necessary
n=CBC
x=better
n=Previous
x=regimen
v=Clinic
x=difficulty
x=study
n=G
x=lesions
x=morning
n=Unfortunately,
x=helpful
v=very
n=When
n=Also
n=Last
n=From
n=Following
x=summer
x=provided
n=Coronary
v=daily
v=vascular
v=much
v=lumbar
v=bowel
x=use
x=ASSESSMENT
n=Since
n=#11
x=none
v=GI
x=angina
x=RXqd
x=.m
x=Ms
v=further
x=.0
n=
v=these
x=knee
v=chronic
x=unchanged
x=weakness
v=days
v=times
x=admission
v=should
x=CONSTITUTIONAL
v=colon
x=HEENT
x=evaluation
x=C
x=.4
x=swelling
n=Otherwise,
x=Depression
v=and
16
n=PLT
x=(8
v=her
v=hip
v=years
sn
v=he
v=the
n=History
x=date
v=home
x=seen
x=mg
x=healthy
x=edema
x=seconds
v=not
x=phone
v=#3
x=1998
v=being
v=RXbi
x=control
v=been
v=quite
x=year
x=changes
x=report
v=has
v=renal
x=(4
v=drug
x=out
n=Right
x=10
v=acute
n=2
v=#7
n=Although
x=7
x=Doctor
x=14
x=1995
x=exam
n=We
v=abdominal
x=1999
9
x=headaches
x=depression
v=no
5
n=Physical
n=#3
x=pounds
ncap
n=TELEPHONE
v=saw
n=Chest
x=3
x="
x=etc
v=had
x=
n=For
v=treatment
v=b.i
x=diarrhea
x=recheck
v=3
x=RESPIRATORY
v=also
x=visit
n=,
x=RECOMMEND
v=10
x=COPD
x=physician
n=Occasional
1
x=Skin
12
x=diet
x=hospitalization
x=months
v=/
v=at
v=Patient
v=20
x=eye
n=S/P
x=minutes
n=It
v=since
v=be
v=No
n=no
x=.5
x=days
n=The
v=mg
v=normal
x=ear
n=Blood
x=disease
x=rate
v=St.
n=Denies
n=Otherwise
x=Mr
v=neck
x=0
x=available
v=follow-up
v=0
x=alcohol
x=patient
x=right
x=point
scap
n=Please
x=D
v=q
x=week
x=99
n=Normal
v=Mrs.
x=program
n=With
15
v=few
x=recommendations
n=Has
x=loss
n=His
n=she
x=night
eos=;
v=each
x=symptoms
n=will
v=three
x=Knowledge
v=same
x=pain
v=tract
v=about
x=refills
v=heart
v=#4
x=(7
x=Pt
n=As
x=recurrence
x=activities
n=Postoperative
n=Pt
v=recurrent
x=PLANS
v=tab
n=Continue
n=Multiple
v=artery
x=limits
x=Coumadin
x=them
v=a
v=use
v=of
x=information
x=dermatitis
eos='
v=side
n=I
v=reflux
n=STAFF
n=A
n=After
n=Discussed
n=Letter
n=Not
x=intake
x=11
v=outlined
x=BPH
x=left
n=See
x=ago
x=performed
v=exercise
v=Health
x=resolved
x=children
x=Plan
v=Prescription
x=keratosis
v=Dr.
x=basis
x=exertion
v=hearing
x=infection
x=Unremarkable
x=years
v=was
x=treatment
n=However,
n=This
v=last
x=1996
v=than
x=No
v=pain
n=Total
x=lymphoma
x=care
n=#2
x=surgery
x=Patient
n=Therapy
v=weight
v=from
n=1
v=good
v=p.o.
8
x=call
vcap
v=left
x=tests
x=EYES
x=anemia
v=lower
x=infections
x=Stable
x=qd
x=NKA
x=history
x=(3
n=Follow-up
v=back
x=failure
v=Mr.
x=4
v=by
v=above
x=Mrs
v=shoulder
4
x=disorder
x=pressure
v=as
x=.d
v=current
eos="
n=Recheck
v=migraine
s=1
x=MUSCULOSKELETAL
x=bleeding
v=ankle
x=RECOMMENDATIONS
x=shoulder
v=an
v=this
v=See
x=hours
n=An
x=NEUROLOGIC
n=Urine
v=any
x=factors
v=in
n=#5
x=note
v=A
v=sleep
n=On
x=allergies
eos=.
14
v=mg,
x=goiter
x=problem
x=dysphagia
v=
x=incontinence
x=here
n=Positive
x=following
x=medications
x=this
x=HABITS
v=see
n=DISM
x=problems
n=Per
n=Father
x=her
v=two
n=If
n=One
n=Of
v=my
x=(1
x=PLAN
x=appointment
x=status
x=complaints
n=Sulfa
v=is
x=me
v=significant
v=#5
x=back
x=(6
x=Noncontributory
x=U
x=CV
v=well
v=five
v=po
v=atrial
v=muscle
n=At
v=health
x=1
n=has
x=8
x=spine
v=several
v=more
x=reviewed
n=Will
n=#1
x=month
x=IMPRESSION
n=Tylenol
v=out
v=without
v=Synthroid,
x=below
v=extremity
v=#1
x=ADDENDUM
v=patient's
x=urine
x=None
x=medication
x=fibrillation
v=postoperative
v=recent
v=year
v=RXti
x=)
n=Possible
n=Calcium
x=afternoon
x=stable
7
x=walking
x=work
eos=)
v=1
x=fracture
x=now
v=I
v=if
x=(2
x=methotrexate
x=NKDA
v=right
s=s
v=nasal
x=area
v=INR
v=p
x=5
x=rhinitis
x=Respiratory
n=Given
eos=:
x=home
x=noted
3
sp
x=studies
x=hypertension
v=for
n=They
v=prior
x=concerns
11
n=In
v=joint
x=Hypertension
x=day
n=Instructed
x=bilaterally
x=follow-up
x=.s
v=As
v=thyroid
v=-
n=Axis
n=Check
n=Serum
x=negative
x=Hyperlipidemia
v=were
x=well
n=Chronic
x=.n
v=dated
v=skin
x=2
13
n=She
x=it
x=past
xcap
x=Negative
x=up
v=2
v=or
v=months
x=proceed
v=past
v=with
n=Mother
v=completely
x=results
n=Atenolol
n=Would
n=Lasix
x=I
n=There
x=pending
n=Referred
n=Her
v=pounds,
x=fatigue
x=above
v=noted
x=present
v=M
n=mg
v=urinary
v=to
x=effects
x=hyperlipidemia
n=in
x=1997
v=Synthroid
x=(5
v=his
v=t.i
n=Send
v=Per
x=mouth
x=ENDO
v=medical
x=carcinoma
v=AND
s=
x=exercise
x=today
x=.
x=cancer
x=2000
x=questions
x=syndrome
x=9
x=good
v=have
x=weeks
x=normal
v=Pulse
n=Note,
x=6
x=controlled
v=some
x=rash
v=next
n=No
v=all
s=3
n=Negative
x=discontinued
n=-
v=one
v=four
x=polyps
v=#2
v=after
v=diabetes
x=.D
v=other
x=Completed
n=Patient
6
v=vaginal
v=that
x=cells
n=#4
n=Laboratory
x=sleep
v=Weight
v=chest
x=Clinic
x=daily
x=arthritis
n=Two
v=she
x=Dr
x=bedtime
v=ventricular
v=physical
v=p.r
x=mellitus
v=mild
x=insufficiency
n=He
n=Left
v=cell
x=Neuro
x=therapy
x=diagnosis
v=are
v=on
v=pressure
v=12
v=then
x=only
x=mass
n=INR
x=.3
x='s
x=dose
v=six
x=examination
v=blood
x=time
2
v=6
n=Recent
10
x=X
v=approximately
v=per
n=RXqd.
n=Unremarkable.
v=G
n=Lyfmbd
n=3.
n=Patient's
x=RXti
n=however,
v=b
v=The
s=125
s=i
v=Axis
s=625
s=,
n=Negative.
s=8
n=1.
n=d.
n=Ms.
n=None.
n=volts
n=for
s=4
s=0
s=30
n=d.,
n=PLAN:
s=o
n=to
s=d
x=q
n=CV:
n=a.m.
v=seeing
n=qd
s=5
n=on
s=9
n=Plan:
s=t
n=with
n=2.
x=b
n=Drfiuzqf
v=q.
n=(1)
n=note
n=basis.
s=25
n=and
n=Qbggfzx
n=4.
v=t
x=H
x=.o
s=n
n=mg,
x=.i
n=Pt.
n=IMPRESSION:
n=Dr.
n=he
s=r
n=(3)
x=p
x=RXbi
n=p.r.n.
n=Wlhsqjkgm
n=Pttp
s=00
x=t
s=6
x=12
n=but
n=.
s=D
x=a
s=2
n=5.
n=(2)
n=Mr.
n=msec
n=Mrs.
s=05
x=M
n=as
n=q.d.
x=doesn
s=m
s=7
n=HEENT:
n=n.
n=Mmxqess
x=13
v==
n=Yldqhm
x=St
x=.r
n=(4)
n=;
18.70585886480452
14.176619982236254
5.677006651195512
4.8831367327392075
6.021279514191771
5.566541803404391
6.0641941521394696
4.884745056971752
3.7741717594879263
7.397591768449046
6.905561323820102
8.752795861812126
13.255548664240335
3.1222832225391524
7.672230347939376
6.6339529069272665
2.3530716869790753
11.348026256273926
14.425987029721128
12.910104814768827
10.475409548029974
11.909166245052422
3.432433870788471
9.381997426271433
7.060359245715501
7.723115398530442
3.3282365192998786
14.177807767383312
2.1500510231337815
4.12103144677398
7.031865749994248
5.363105594077802
7.932610287974781
4.686557469236041
16.292678167065443
3.338613119975506
13.69738032049177
14.184764069788118
12.603916618016115
14.7628529238759
6.934645584671247
5.761863975161901
8.721031501421393
10.591126153826433
5.522759096447514
4.099063894274436
5.186560048227535
2.764683425494576
6.77025745349212
5.243907604966413
7.870311001038148
8.092699027606034
5.697147664973943
4.9057749178135115
12.705168776694968
3.44604747331556
9.5892826397294
2.565774675670265
3.1900971006539764
15.620310405007972
4.687335009144434
12.139010814514538
7.070910178659901
7.562562080394821
10.475409548029974
12.389129994729227
7.4920688972017775
6.854048649753785
5.185226567995216
6.455619910664915
6.559885295688559
2.4975664233027466
7.3947670190258155
5.445816190637825
3.437485489870795
5.9770793980294625
4.7189142074083446
7.179487631236149
8.587818206759287
9.98472190338142
11.146066715299582
6.081343022221716
6.374339506717515
12.617596941927552
3.932961449502061
6.464303183945879
7.666635153638187
6.289553774128814
19.667579017715244
2.222355070444925
6.282178138857992
6.348386305028208
10.468802399853766
13.64199480268866
10.457968614179123
3.8989988607588226
4.941828775254516
13.743542342510661
5.52977579783608
9.0333409689443
6.951378263580078
19.173350345714805
5.421118083841858
3.967817010507536
7.94498071372856
12.708679448852685
8.707068440767246
10.896917342400279
13.05831154008602
12.283134860556554
4.613753920943816
3.1738479138019824
4.064516322178772
3.9265836617693566
3.2964392830106872
6.212527729394433
10.294522729866303
4.70408379600296
15.595288285506731
2.8342049626756447
8.499082641791768
7.820034238856846
8.022683350322248
16.49366075400741
7.910658716243901
3.2114081007819606
13.241275189174617
4.297635308284871
5.280714148291323
11.687354126530469
11.425025183143337
15.46324561884754
10.079647829034121
13.104201725992482
3.880074289139456
5.839360870150166
11.857125603573479
4.012038010672281
5.322585044722255
4.451146990437783
9.273907882578886
5.491886965026245
7.922284523251134
7.818284437472016
14.072007158472218
15.44755459839286
9.759454342880764
4.395542616709298
1.1645798469770137
-2.408160564272596
3.3090178904854723
-2.2692274336117277
0.36194137313931396
0.4316340963976826
-13.824229323253434
8.546390983143878
0.17257365481914588
5.432925617225231
2.1243753487275256
-7.030858118448617
2.997372772861169
-89.54624905818672
1.2707770640245633
-4.835349356301779
0.8855407894790037
-1.76967691498945
0.6127634105914763
-1.1538308266087618
2.048223641552542
-12.85520968864878
-1.229848951786311
13.69552047371328
1.7401128529243757
-4.302395140623634
0.6619409951862263
-1.3435078351279706
-3.036354747561901
4.504548297952944
2.0712658563598945
-7.93014593070714
-3.0491870680571664
3.322732293734502
2.9320854773164884
-14.538277035454392
-4.991156396726639
5.53343741829641
-0.28105711255041266
5.345004052832417
-3.464720885927657
3.681570046198124
13.452316895931025
-22.20817352550809
-1.0064631245919213
7.372772534605644
3.7650312319505117
-17.31752658353071
1.0976696905445011
-4.0536295570070155
0.246495224888009
-0.1660801205032616
-5.267564874098669
7.846928509602149
1.8307829676158023
-1.729360647437634
-2.0012870731891437
2.0573810067759943
0.35733195037294063
0.5238443896245872
0.5349847817962667
-0.9628598962141375
0.7423778812902682
-0.4859540235495203
1.3627401189994295
-3.133344966374315
2.6675217073724946
-4.3828585071892565
1.1922669874754916
-2.4598655415597035
8.857185969653731
-7.85660647214123
0.3871971094682578
0.26219195144264523
0.6035038507190074
-0.7721327687405317
-1.4028055357557858
2.489028745530274
-3.9561551967541475
4.230686730295537
-1.0560906095161702
9.851876388566465
-0.19205871805074048
3.603818041838509
-1.9085961223829808
16.0135898346014
0.5219799044176794
-0.6815722245733344
-2.955989833011826
2.703515235439025
1.4847482799343377
-6.6150164588096265
-1.320071320034292
4.819850988043937
-2.1438140323954338
18.069364553904702
5.01474029642761
-3.1693391852135044
-1.0696601632701204
10.960452988812248
0.04011115691659528
4.482269492239745
1.1229246925637746
-6.376874957364089
0.06261324182499672
1.0030406088663426
-2.868513942980143
9.189989551980004
-11.523772239246096
14.349386852587054
3.4459993001187064
-11.478006224751052
0.28361675083688453
4.398704147386803
-3.7312240484182606
3.352510726004706
-1.2193320827752745
13.231322983661844
-18.810014795451725
9.597298974090046
3.2019354216524114
-3.432441860922795
-1.0911316419614727
1.1002718594263248
0.16553573183427917
1.0804057750565996
-8.032670305423022
4.513939906545396
1.9452284912771707
-9.249259981075602
2.0287290439017744
-12.144611926417891
4.448003254326386
-3.037354623977217
0.4221690195701031
-0.2681772162879854
-0.3377642256998594
1.3270242001292094
3.6251478885066697
-18.56503936884255
2.3550963757009193
-16.499009830411676
3.396674898096479
-24.671122047447287
1.6563174130553637
-8.064828812540384
-0.7519312930977327
2.9561850970470953
0.35205154823508256
-0.39292790591439264
-4.1750056084609835
9.488490353621092
-1.897155836270013
7.025909132594536
0.041083581221204035
2.426712361294072
0.21444569456442064
0.057118684901561245
4.108848623137575
-7.579470583070986
2.428152687826754
-39.00076774906785
-4.7195767336022225
10.748685595268547
1.398329873785869
-3.3539548172057536
3.7716917884067946
-20.03271413112776
-3.7413827083224827
1.715876894321088
3.7157621358604467
-15.043434017549284
1.7468095116815578
-2.3389494619316413
1.396858760904411
-6.040123667263382
-1.1639070681841113
7.458631852764793
-2.7943552299631618
10.009595368471416
-2.1847040712754984
1.1250583324891874
3.498246866290003
-18.2420156464513
-1.8452391909945158
4.152292380202645
-3.4774713287786567
1.8065260317244003
-2.6776407956231028
9.476533139563742
3.564853236749518
-14.229115272286162
2.7879074222808136
-9.445990868402966
-5.949404356297985
6.596997727957102
-1.9544103922531124
14.626488220937233
-0.21392495028170666
1.6924282640686619
-4.719937817503785
1.5920869473051122
-7.832088308550238
9.011901351304338
0.5982129126930957
-1.0363631677032366
-0.38574333202060895
2.245955337929095
1.0861441701152943
-1.6995191145303663
6.759266483281799
-11.714649631074487
-8.141882277547033
4.450321049033887
-6.808626928141069
7.733339624197337
0.5142913737218224
-0.7560983452006851
1.1279205020901089
-3.81399456695093
1.0386731065202222
-3.4228291856194417
1.5429136461698274
-8.96497325569033
-0.9334320591374259
1.2864662449230293
-3.3562992242043608
6.056864979536849
-1.1019202128828833
1.5599608216961995
-8.195139595760066
9.722649674812564
-8.929534036203716
7.105554671625509
14.22232634741118
-3.574964192298662
0.05600436841078471
0.4775547091668546
1.745528603468471
-26.840774565449294
1.4208255804733927
-3.8032243731591215
1.1975161188062073
-5.362171821133485
-2.0973463121103495
5.655360211261484
-1.0197728329967788
1.5590286646125802
3.359358217715603
-5.261836871721606
-0.45332932356873634
2.018550345300535
2.771654130560197
-21.548259977887607
-6.677446684641449
3.290649034451594
2.1525519138424722
-5.462969704637213
1.0601425349628633
-4.539902128114516
4.439823783558495
-8.985422761431302
0.2956323512482468
2.2777264090388143
-9.965191886412937
5.128076141385009
7.824733082632569
-0.5919703096487652
3.0881134011310745
-11.568788380018137
6.2501616982109525
-13.498623495549586
-13.402875008396418
8.906453646032883
-0.26586203888076687
0.7351496912172569
-16.834507960330722
2.428218452753641
0.7419603750269919
-1.3721239363900075
2.486881273609393
-11.516531134217358
2.7692710526756654
-9.500229556365888
1.1892022770283186
-4.326080600035321
2.442897499471368
-0.33954274374757176
2.822073262450187
-18.664294019908095
0.8215830268789823
-2.537994263326989
-48.45804689686432
2.5996508358469392
3.033945946190718
-23.251988274923683
-3.137322778121873
2.19057203727487
-8.22500559662026
2.902618739224076
0.8446027805534797
-2.2121890438560117
1.923671439345693
0.5269102383779998
4.938621054530912
-8.850899101732523
3.703416403884561
-10.761477407357582
0.5867485938484744
-0.6763447335132928
1.8370469508289557
-11.985597130614556
0.8318060446406248
-1.7515779285000437
1.3496408158442037
-9.738862146292767
1.3250409754769257
-3.250307535833128
3.4829316635761995
-9.622033141204545
-0.14534970056939
2.5498017140248455
1.8218545607094625
-28.74688110591094
5.666043206446915
-1.2285595088465897
2.0875608946838193
-9.40558490742513
-65.85413878515217
2.9737122067230146
-0.5339070416748648
9.6994626022463
1.1178334423111362
-5.925138704157316
8.50297189098383
-7.635879744621442
-1.3433562470502607
5.833748671356197
-2.8051100815138064
3.0797471542854855
0.4617526344495
-0.20651010276887535
0.17142796322138398
2.3649379509517128
-0.6756266786054037
4.691904444835333
-5.603901020375311
8.21589618064949
2.4377849876332855
-5.564159585540973
1.7193510787562172
-11.904492277427503
1.0820107132478167
-3.862676355002341
0.6413125993338096
-0.6185604190153224
-7.127330385600883
7.7938119429748705
4.758365404014631
-11.222682371336607
-1.1199089926650767
1.256029004563739
-0.005750462394356726
2.6908152617762626
6.951435123050862
-12.411953814366154
2.74883470352944
-32.73620972097441
1.2833295057195349
-3.536025495085764
-2.0742807651159714
2.732267500295708
-20.040222766049546
3.783046131045047
7.506477553584965
-16.573277151121975
0.7130293727098387
-0.5522903878557963
0.15969250272638336
2.7484938896574977
2.9750295943172986
-13.556980845279284
-3.939611303895072
9.039644275384441
-3.1309042450345035
21.09495650687751
0.21897401806111016
0.007817245337142786
2.8427279759588098
-5.952515258066001
-1.175552421951715
2.5977063242103737
-4.980125665312524
5.737606538896111
-1.4933321656021519
3.4015354122551216
-20.329587626717963
3.015350572023852
-1.4641242033805233
12.766101827109845
2.7523852734781835
-25.83954246399999
-0.7776087672384884
13.741246151460249
4.184835835612963
-9.769205000184634
2.4634740920075084
-19.866559307012814
2.676060417712954
-14.354535005556006
3.9308209478371525
-21.056031376115506
4.836739491630245
-5.900575466572654
2.00601394390461
-10.898993401373065
-0.3519124599004235
5.296091095911928
-5.540545214825703
1.8917449218607252
-9.037486260251006
11.872913114329407
0.8003378327126858
-2.144503812567835
-4.029113994842858
7.392929246677086
7.780954721436151
-8.536625609039358
1.6401892036772399
-19.728712993721814
-1.9026356692841557
5.372138522627551
1.208024614267506
-5.130049581842391
-0.09432223001015938
2.727608015518086
-5.069057344503683
11.583456077367714
3.9711436097175983
-15.628946308047112
-6.793682686160842
7.892036787620794
2.428844225866718
-9.558083455114026
-8.806225067432102
5.637203410319624
0.7842362628372337
-0.056640418374168
1.0056471048374966
-1.5581948285522387
-0.3444069608091649
10.44864810003709
1.280556563844442
-3.2238451486686763
-0.2644453138757359
1.9137173919530486
-2.818844720922643
4.679053978061328
1.3432532641127826
-7.5262678340022235
-1.3517922385159937
3.725300775821561
0.8723120649452198
-0.3051681505794271
2.0676577515080323
-18.677686731538667
2.447250773714549
-21.59057268589055
0.662597178226193
-1.501711328581388
-7.373578758092188
7.196788670978438
1.0124689847300967
-2.689766397180668
-8.231028918066924
2.860269658044973
0.29677798943387756
3.1690504446784455
2.394596070211703
-2.112429246954591
-0.4070642181231874
2.0095822595352972
-2.1952888840175637
5.101768081222708
2.9805597468424834
-26.220648439063456
-0.02573541597858231
3.1330970692232336
-1.337173891224276
1.1834732836821635
13.23251062457117
-14.544227775856982
-0.4644790159322194
7.7954027613126335
-2.2972636393055534
3.359307976217912
-12.638530838545469
3.8883430655204876
-0.7642315097563608
3.5763226665378864
-15.880805525891997
3.7848188048129696
0.8737312930425363
-2.37575395979861
-0.11764151359363151
1.0223066213023784
-2.0393467203250433
2.3847082862699374
-1.3187714402730397
3.7040553208971176
1.2133936214064889E-4
6.915613271672948
-2.3064445699183787
2.525342705297672
-1.688719163180316
5.990404951306821
-0.7232975861726612
1.7309325386014935
2.6284814110641204
-10.422816367580717
2.0022576972054194
-7.297010656825974
3.340655885521886
-15.66301250928307
-0.827306073903858
6.799726095375009
-0.2622731082897447
0.977578535672607
-1.2327195233140706
1.2741868957910123
3.8540389683417904
-29.86067768128558
3.110978865365054
-17.17228523931045
-0.2524582310244594
15.035326947574209
5.649385594381676
-4.373991063775077
-0.839998967890855
1.2188056495266775
-14.215145042203702
4.128467225107365
-4.57354774680362
5.861902388144774
-18.747925905924696
12.46910559838383
0.9322451160225158
-3.252567617818528
-0.039126492701937465
0.5884461099383316
-1.3553642979053249
6.472154383481791
1.072412856177746
-5.831971563116934
0.913396256864933
-3.1688401837510574
-5.002007729372062
2.2670200293566714
2.8351827517324137
-14.542191723742363
-29.143908049230568
6.281152980351047
4.659161694976463
-25.790723819729198
0.5814418384475193
-0.9338031707353768
-6.429064576871539
1.857888904950583
-6.0720520023888245
6.669169526958662
-3.7125653707134614
14.102972080863577
-1.0712745926672447
8.23836165291819
-5.409794273841692
5.868648339809461
4.314091486612189
-23.59762576781535
3.0454588474988116
-17.355454593466035
-0.043295347662622774
2.238939801013579
3.8683808842360627
-10.218904579551054
-4.269579759109793
11.887565643171218
3.7308624280745644
-30.403248111925155
-7.255534261533661
8.314176820666757
4.1932126089998665
-18.838908523912906
0.0640244699396404
2.6385589091079473
-5.432133546365284
12.692496960917893
-0.2951532518119917
1.555690389458575
2.31908931442376
-34.797861857696695
-1.6610734471048725
6.16596332274409
-5.627245719743304
3.3370743280112887
1.5064939593149178
-6.987288529428741
1.9644906821516241
-26.002256283746974
3.023342469320012
-21.6003944492562
1.2859699121046084
-3.2032519237473096
-0.4445590837119471
1.8773844162913704
-7.423388017862373
3.269191756144064
-2.238438856014036
6.510522711682999
1.8642272904623751
-8.131212814241316
-0.8749830728945016
6.8286335335162285
-5.831926713877604
2.957764800177846
1.4922364769309016
-2.5437762874290955
1.6962319108839496
-7.606504242139735
3.2549513869702116
-19.11515569373201
-3.026173677663942
4.936167459450401
-3.484325665543094
7.219521564065338
0.503276836177057
1.6627631733188741
-9.411453462482006
11.296410575884702
-8.062306303343783
3.097747261364851
4.458134062771707
-25.152615221395873
0.4293769727730843
2.2419685729431134
5.3176677076884715
-13.917059860373563
4.749681666949927
-21.384640890670223
1.5113114118236992
-8.539563208325413
-2.9037239186576973
3.886115674470749
2.1252437073233112
-27.129729116053955
5.479463632771928
-26.836207508385236
3.9448842524560495
-15.430978435922562
-13.720963399436549
12.3626140122702
-2.140505563825653
1.9179273407633144
-3.5705735778442715
4.8559166739728665
-5.086173354352822
15.088512328636103
-3.2110978743171836
4.348405154971117
0.9247753062056039
-3.6278873399975717
5.365064097549622
-21.64348745402134
-1.7599727153433005
6.678733547462115
3.614249290112105
-14.066779216526202
0.8911849217666075
-2.9871762679796214
-0.5419652610799188
1.4148515700182571
0.012311938889468355
1.13602617554459
0.49472161219066946
-0.47666418501717045
1.1810330579055768
-4.484596063961966
-2.3159178584525293
1.6130412369127969
-0.9516095848823913
0.9913792091944722
0.1653023196975143
0.21797611345446333
-3.364229547409175
7.938952233195505
-6.313040683503695
3.0216034350528505
2.506860273484558
-9.938453651842186
1.2019428913350383
-4.616575382231031
1.9973446251123579
-36.46602873510922
0.06716089611534648
0.7552083006353424
0.7302831663734364
-0.08017315306426065
5.13541483845073
-3.5110415475716112
-5.786492577497848
3.534479213979922
-0.12457819003450599
6.181580793303657
-0.5988550290205472
5.019297159492426
-3.378071617931271
6.1383316836292146
-0.8237807330575961
5.51029031200886
3.9156563136739932
-24.459584481765702
2.9441470658202364
-55.60158909353613
-0.016917737651461096
2.010991548495376
1.6902544235521564
-12.177038320863826
2.317719639733186
-5.026264788717215
-4.2803030556949935
4.818998630674303
1.1426450029035404
-4.2378157124844575
24.790998123981463
-3.3113101952880477
1.5059188914287742
-3.3055997799837704
-1.3148318887034365
5.581929489964504
2.092300551913745
-5.027493716527514
-5.452601523971959
4.820828408266709
4.4238521209205395
-18.105755636517646
-1.0436468968215091
12.074614717062893
2.8331724524159276
-18.706258368757414
1.926592668097682
-20.159604929525607
1.7349307798245293
-3.8570758727408196
-0.43882317098736245
5.678057325394123
2.057854979130921
-12.50363381765983
1.9444923035639505
-7.181671268008671
5.417365417864463
-0.5810553581669382
3.567667504102263
-12.336844495936917
2.8573334216200523
-5.280564124508002
2.6884452514789365
-9.275079505512837
3.0795839176104485
-14.503328139347083
-1.152392126615681
6.354280097516599
1.0393018494774688
-2.542459834378871
-1.5098967481087562
16.412010148992447
-0.09501925818283219
2.428901511320795
-30.920429297396595
12.337171164762143
2.9601906958721704
-6.186609736491943
3.9655561560066435
-11.785072843909841
1.8829305548405846
-7.836078831027812
-5.099937556118931
2.960384168486005
-0.8293756234459126
1.2615626086658953
-2.0770564808806817
1.9022047581487356
0.30567960500422475
-0.1840386626297097
1.9647317789644712
-8.95443675884215
-1.4259714326861115
5.391125206113074
-24.50431743516567
1.9904350904156276
-7.799869061057998
13.625252571639377
-0.10048868153292045
1.7567034617021755
-6.318449315167557
2.273194302881471
-18.58340802231872
3.207318571625703
2.216572299889943
-1.8155519857334323
0.19411352765848733
0.9262611152344933
-5.131137374377227
5.638325170302817
2.8421041053746254
-14.745958344294024
-18.611433295136564
13.967894837978
1.602252028844874
-17.785961211289738
-0.5420996817271093
4.223917400959436
-0.5894776948877105
1.2318129559858253
-26.796792766072677
1.91984043626959
-1.234369100153668
11.319611686641325
0.4341221631203136
0.6129117281959
0.11930242830835525
0.025545794479922446
2.3105341813315383
-27.223424015524802
-1.1816057729506086
8.945909432941184
1.3830848018086792
-8.135951278941324
0.8065239878249528
-1.7979736099970456
2.796153770655701
-20.856912624755147
-5.878651774261556
9.481373818803274
1.0129722862627402
-2.8524724572220994
2.3415295938255345
-9.394762353792407
5.6162556710163845
-21.350840224447424
-0.7406698923790076
5.251373026575689
-0.8137016313663588
10.380372663013793
-9.186855670778188
8.018813199681677
-1.9683306675850414
2.459923208729263
0.37401029403248476
-0.498839071808441
-0.42609139285289177
0.6345956990706514
2.593754006423342
-21.01533892871839
5.168577719393911
-11.464127107876545
5.76309767060981
-14.499780959401116
0.7790538748767681
-1.3103462729425108
-0.5039027987551394
3.329811770450765
-1.9840188846670301
8.506626335931632
1.1361739289399249
-7.617066712012804
4.290702771283115
-15.271035128609896
-5.612364626743956
2.962269975690537
-0.5761551316332667
5.09501879667897
-0.06085526771814953
5.070410176832418
0.30427132502509613
-0.06282300138413621
0.6358015454845685
-1.2554783161740932
2.3403773222394237
-25.32417722676828
3.5659042856000664
-19.818354843443718
1.2644791278604681
-4.071617016442104
-3.917687974384857
3.8711113737211225
-3.676934573387396
4.664821464044714
-1.5776241832807925
2.951580737759702
2.705947947968493
-4.2709644701890515
0.07107508499213155
3.135754594669829
0.7187663838935456
-1.8927561304093334
-5.55355350293153
16.763413300694243
-1.863296642482341
6.6132043808713235
-1.2351830162049007
1.6023341069226609
2.222942888362569
-15.042839874196996
3.540184108741472
-14.307895021765459
1.0029929296709468
-3.0914562224144957
4.018365550807352
-16.09833477892709
4.99572188849783
-15.354147151003989
2.3250652909864993
-2.1627022529948636
-8.090420838492202
2.3016200712913197
2.266097013274614
-31.99544789918402
1.5256383286604858
-12.062754230788402
4.399941468697953
-16.96947096677997
1.8856057895700218
-32.23119139226974
-1.0771159215084056
0.8807009479819685
2.362933461159826
-16.511471406671884
-2.900432201212595
6.13533200315534
-1.5638165795922299
4.7049534764625305
-4.918553808131708
11.340040664147338
2.756529311510895
-0.12474526496211613
-15.320375163671065
1.8774996916754891
-5.53730905297246
14.39787595339064
0.3151634477894305
-0.4238171536361435
-0.5367560317515068
7.583043982028444
-0.7765924481139763
1.4739815319595733
5.257963189406822
1.0684383013397887
1.7652005779559148
-4.915756437046301
34.43722946184216
-3.354989420775408
-0.12176422801389508
0.13741247920683897
0.36445973988370595
2.127727374465671
-3.3333549111461935
1.7196514307653255
5.466900869745026
-21.077002777391463
-3.7822277306585543
1.5345949669230496
1.0754404379569042
-4.225238265573916
-8.79069993253481
10.420866713251534
1.922614029669667
-21.788057117361326
0.8453806713070242
-2.3241104417749625
0.10527140388187006
0.41681390436536003
0.8166682760241226
-1.7630790991746927
3.3905329990683772
-19.674977557487573
1.9702402485199113
-7.264137498895229
10.889898195114974
-17.1971330402496
0.484489999809083
-0.29492738229630855
1.1341730197715125
-3.5388044420631553
1.3444910260353085
-5.454433854141012
0.3030656349115137
0.3629340335990111
-6.124721389174113
2.64120114232731
2.1819942568317288
-12.769130909211023
-4.176829672159224
9.253479441433774
0.007039823354945796
0.7552869333525201
1.2477430058511843
-6.780890156223132
1.023881095617695
0.34964156315803585
2.305629406898402
-9.069815079825077
1.0191482343541935
-0.26237511847838224
-2.2431111141597038
5.872952873639865
-0.7677992864438734
7.81018320453858
-0.11732761068220632
1.3178794513877035
1.4033900447274212
-5.913528933509792
4.730035888092057
-14.52742240624487
-2.0240641227057243
6.3406665998294
-28.99494339642949
3.053568849990164
3.8933470089865554
-1.765830585509085
0.06699826418734212
2.0973939132302784
19.59458773203597
-2.3890694774748873
-0.6821604475492125
1.5279809402451168
2.0215285426888427
-12.742971340587866
1.6143065812417525
-2.528006461081175
1.3436163774335896
-4.6511823768520415
1.1938277339744574
-3.2900509960183326
-1.427385656862886
3.442402621149752
-10.026794546110894
3.71568748078555
0.9385936502079661
-2.9412779912462756
-2.8051100815138064
3.0797471542854855
3.4855184317737766
-24.34712927369473
0.4880813045472321
-0.6459403123512759
-1.5288591816462085
6.713900368146367
1.134886683497668
-3.525543719689362
0.7467921875668624
-1.9382725685621292
2.594415976104572
-34.37224255045615
3.5569938632305655
-14.365442428079449
-3.07655435316027
9.879100098917883
-1.344133373911377
6.015724807746503
1.8444996726555885
-9.700663756533379
2.3254956342812254
-5.291249682434607
1.1969120302649765
-3.5265525183351274
1.013244262527476
-3.4604644032411915
3.5106198908694277
-7.960519483634901
1.1065461100095217
-2.4193680482501763
-30.31643475802396
5.124775488247855
0.5822705991966655
-0.9802662328295351
-2.3569013229326163
5.1618549224336325
1.7593853598060367
-10.638213403605153
-5.612364626743956
2.962269975690537
0.5296531506265361
-0.8851316780795476
2.492254953905535
-14.477047767286912
1.549839074650814
-9.769873891305835
2.1338108325772787
-27.050251099888218
4.4146344283079415
-5.747582458870864
-5.9021612307214575
14.050165704896207
-7.769417035427786
9.044187931510677
-0.1676685634684527
4.339723755287863
0.9478399502572485
-1.6067542171687632
1.080812297317416
-4.064483011238726
0.167566186889041
0.7227512633709416
-0.7075298138081108
3.25871096741861
-1.5873251616033708
10.803228014041176
-5.254144252572385
5.985308240203165
-10.339963561205975
12.485560604243709
-0.29067315697214036
4.598545659283408
6.9734320853978495
-4.669011516542311
5.032041074726196
-17.636943426250006
3.868549026904695
-8.422467669551668
4.001008868826849
-15.757404856794542
-2.561524695362194
7.403141566572279
-1.9394777413557556
6.901288117246484
0.7812850883479894
-1.7810879541612201
0.3964407824308407
0.7747822845814141
-8.072455193301813
4.275665972221275
-3.7648440639491314
5.572793334821082
2.5889825453340247
-10.635073089326468
0.8399860494737945
-2.155579444584964
-23.407999971557654
6.806229842423349
-8.505820942250256
4.962344835202574
-5.814540271337901
8.891702894203963
7.990193736438503
14.3510138043089
5.303495523667389
8.754531621759849
28.621404917114766
33.959970732624015
9.051984940557743
3.43795367951048
12.14334714406975
2.5899103968224733
6.444799256943762
8.703339109819455
7.786672632823127
2.95651613981351
11.943502026441944
6.013079939437562
22.903949908008098
16.39071895191026
8.019251107053243
35.75711725189389
30.632277983800975
9.917304309502663
9.526295340925028
18.604730377267153
20.70918677670255
6.6237573215762815
7.940152969118421
34.603759975679345
10.292291572026208
9.750511940522713
11.380448115876218
12.630361055389226
29.920603346576478
4.7524058182902715
8.086095380952838
5.647414986801917
14.030702846862066
8.358575029841766
16.111041357375687
33.98836742055541
8.483546449434373
10.827134683268028
31.326336274513427
9.445862948042762
10.974387945724361
21.497792273945837
30.4345421326501
4.554885179237875
8.46209023360255
7.6506603894713034
9.102968051341074
7.544700197643264
30.358248170772185
13.9074856648545
18.435066200900163
8.985873142071208
11.05533010985382
11.066004375693467
11.167653084857854
33.35227156780575
36.34435409882004
32.34662885159398
6.7118505994582005
9.42934801305865
29.680827560196573
11.178219713491728
15.821349365946196
11.730458831229408
8.735032848338914
8.532586944442398
6.8487394013338605
7.901489717175897
27.995959768925633
8.074034619085959
9.362986951232783
16.81272877169487
3.6459105891894263
13.305501762380858
14.724663507527644
34.03238902571431
31.500411439590156
35.8223770410753
8.498604524979271
34.190338115710034
8.356493407594558
3.870554611107583
9.549618504365403
7.122179605195281
8.278079031303477
16.25149103267527
17.37580860282929
33.12890818075621
9.154134128128767
9.870914232801185
13.211689187251721
12.706255920975666
3.5653925993530984
18.88744217088339
11.05533010985382
27.94266937279143
7.584743064380336
